digraph Tree {
node [shape=box, style="filled", color="black", fontname="helvetica"] ;
edge [fontname="helvetica"] ;
0 [label="BloodPressure <= 80.5\ngini = 0.487\nsamples = 43\nvalue = [18, 25]\nclass = non-diabetic", fillcolor="#c8e4f8"] ;
1 [label="gini = 0.0\nsamples = 17\nvalue = [0, 17]\nclass = non-diabetic", fillcolor="#399de5"] ;
0 -> 1 [labeldistance=2.5, labelangle=45, headlabel="True"] ;
2 [label="Glucose <= 98.0\ngini = 0.426\nsamples = 26\nvalue = [18, 8]\nclass = diabetic", fillcolor="#f1b991"] ;
0 -> 2 [labeldistance=2.5, labelangle=-45, headlabel="False"] ;
3 [label="gini = 0.0\nsamples = 8\nvalue = [0, 8]\nclass = non-diabetic", fillcolor="#399de5"] ;
2 -> 3 ;
4 [label="gini = 0.0\nsamples = 18\nvalue = [18, 0]\nclass = diabetic", fillcolor="#e58139"] ;
2 -> 4 ;
}