digraph Tree {
node [shape=box, style="filled", color="black", fontname="helvetica"] ;
edge [fontname="helvetica"] ;
0 [label="LIVING AREA <= 2015.5\nsquared_error = 9823.802\nsamples = 4931\nvalue = 393.023", fillcolor="#f9e2d1"] ;
1 [label="LIVING AREA <= 1445.5\nsquared_error = 4056.539\nsamples = 3982\nvalue = 360.348", fillcolor="#fbeade"] ;
0 -> 1 [labeldistance=2.5, labelangle=45, headlabel="True"] ;
3 [label="LIVING AREA <= 1143.5\nsquared_error = 2262.498\nsamples = 1931\nvalue = 323.521", fillcolor="#fdf3ec"] ;
1 -> 3 ;
7 [label="LOT SQFT <= 4871.5\nsquared_error = 1703.331\nsamples = 670\nvalue = 293.848", fillcolor="#fefaf8"] ;
3 -> 7 ;
27 [label="squared_error = 1425.754\nsamples = 317\nvalue = 275.035", fillcolor="#ffffff"] ;
7 -> 27 ;
28 [label="squared_error = 1349.33\nsamples = 353\nvalue = 310.743", fillcolor="#fdf6f1"] ;
7 -> 28 ;
8 [label="LOT SQFT <= 4617.5\nsquared_error = 1843.225\nsamples = 1261\nvalue = 339.287", fillcolor="#fcefe6"] ;
3 -> 8 ;
19 [label="squared_error = 1435.287\nsamples = 413\nvalue = 313.905", fillcolor="#fdf5f0"] ;
8 -> 19 ;
20 [label="squared_error = 1575.341\nsamples = 848\nvalue = 351.648", fillcolor="#fbece1"] ;
8 -> 20 ;
4 [label="LIVING AREA <= 1727.0\nsquared_error = 3266.632\nsamples = 2051\nvalue = 395.019", fillcolor="#f9e1d0"] ;
1 -> 4 ;
9 [label="FIREPLACE_Yes <= 0.5\nsquared_error = 2646.225\nsamples = 1310\nvalue = 380.178", fillcolor="#fae5d6"] ;
4 -> 9 ;
15 [label="squared_error = 2589.542\nsamples = 425\nvalue = 353.801", fillcolor="#fbebe0"] ;
9 -> 15 ;
16 [label="LOT SQFT <= 6607.5\nsquared_error = 2178.889\nsamples = 885\nvalue = 392.844", fillcolor="#f9e2d1"] ;
9 -> 16 ;
25 [label="squared_error = 1924.337\nsamples = 667\nvalue = 383.935", fillcolor="#f9e4d5"] ;
16 -> 25 ;
26 [label="squared_error = 1971.819\nsamples = 218\nvalue = 420.103", fillcolor="#f8dbc6"] ;
16 -> 26 ;
10 [label="LOT SQFT <= 7031.0\nsquared_error = 3285.552\nsamples = 741\nvalue = 421.258", fillcolor="#f8dbc6"] ;
4 -> 10 ;
17 [label="GROSS AREA <= 2499.0\nsquared_error = 2560.702\nsamples = 543\nvalue = 407.166", fillcolor="#f8decc"] ;
10 -> 17 ;
29 [label="squared_error = 2253.937\nsamples = 40\nvalue = 338.597", fillcolor="#fcefe6"] ;
17 -> 29 ;
30 [label="squared_error = 2181.478\nsamples = 503\nvalue = 412.619", fillcolor="#f8ddc9"] ;
17 -> 30 ;
18 [label="squared_error = 3235.232\nsamples = 198\nvalue = 459.905", fillcolor="#f6d1b7"] ;
10 -> 18 ;
2 [label="LIVING AREA <= 2782.5\nsquared_error = 10745.557\nsamples = 949\nvalue = 530.128", fillcolor="#f2c09c"] ;
0 -> 2 [labeldistance=2.5, labelangle=-45, headlabel="False"] ;
5 [label="LIVING AREA <= 2340.5\nsquared_error = 5959.117\nsamples = 711\nvalue = 496.117", fillcolor="#f4c8a9"] ;
2 -> 5 ;
11 [label="LOT SQFT <= 7303.0\nsquared_error = 4917.511\nsamples = 426\nvalue = 470.624", fillcolor="#f5ceb3"] ;
5 -> 11 ;
21 [label="squared_error = 3816.926\nsamples = 275\nvalue = 448.87", fillcolor="#f6d4bb"] ;
11 -> 21 ;
22 [label="squared_error = 4490.518\nsamples = 151\nvalue = 510.241", fillcolor="#f3c5a3"] ;
11 -> 22 ;
12 [label="squared_error = 5092.439\nsamples = 285\nvalue = 534.224", fillcolor="#f2bf9a"] ;
5 -> 12 ;
6 [label="GROSS AREA <= 5495.0\nsquared_error = 11266.138\nsamples = 238\nvalue = 631.729", fillcolor="#eda774"] ;
2 -> 6 ;
13 [label="squared_error = 6634.813\nsamples = 145\nvalue = 589.361", fillcolor="#efb185"] ;
6 -> 13 ;
14 [label="LOT SQFT <= 12248.5\nsquared_error = 11324.418\nsamples = 93\nvalue = 697.788", fillcolor="#e9965a"] ;
6 -> 14 ;
23 [label="squared_error = 4247.781\nsamples = 61\nvalue = 653.021", fillcolor="#eca16c"] ;
14 -> 23 ;
24 [label="squared_error = 13711.622\nsamples = 32\nvalue = 783.125", fillcolor="#e58139"] ;
14 -> 24 ;
}